digraph Tree {
node [shape=box] ;
0 [label="Charging Locations <= 287.5\nmse = 0.0\nsamples = 39\nvalue = 0.009"] ;
1 [label="Charging Locations <= 196.0\nmse = 0.0\nsamples = 22\nvalue = 0.003"] ;
0 -> 1 [labeldistance=2.5, labelangle=45, headlabel="True"] ;
2 [label="mse = 0.0\nsamples = 16\nvalue = 0.001"] ;
1 -> 2 ;
3 [label="mse = 0.0\nsamples = 6\nvalue = 0.006"] ;
1 -> 3 ;
4 [label="Charging Outlets <= 2046.5\nmse = 0.0\nsamples = 17\nvalue = 0.018"] ;
0 -> 4 [labeldistance=2.5, labelangle=-45, headlabel="False"] ;
5 [label="mse = 0.0\nsamples = 14\nvalue = 0.015"] ;
4 -> 5 ;
6 [label="mse = 0.0\nsamples = 3\nvalue = 0.032"] ;
4 -> 6 ;
}